digraph Tree {
node [shape=box] ;
0 [label="X[3] <= 4.5\nmse = 0.797\nsamples = 131\nvalue = 5.864"] ;
1 [label="X[3] <= 3.5\nmse = 0.419\nsamples = 47\nvalue = 5.066"] ;
0 -> 1 [labeldistance=2.5, labelangle=45, headlabel="True"] ;
5 [label="X[4] <= 5.5\nmse = 0.356\nsamples = 32\nvalue = 4.843"] ;
1 -> 5 ;
7 [label="mse = 0.0\nsamples = 1\nvalue = 6.824"] ;
5 -> 7 ;
8 [label="X[0] <= 96.5\nmse = 0.237\nsamples = 31\nvalue = 4.779"] ;
5 -> 8 ;
9 [label="mse = 0.058\nsamples = 20\nvalue = 4.493"] ;
8 -> 9 ;
10 [label="mse = 0.143\nsamples = 11\nvalue = 5.299"] ;
8 -> 10 ;
6 [label="mse = 0.22\nsamples = 15\nvalue = 5.541"] ;
1 -> 6 ;
2 [label="X[0] <= 118.0\nmse = 0.452\nsamples = 84\nvalue = 6.311"] ;
0 -> 2 [labeldistance=2.5, labelangle=-45, headlabel="False"] ;
3 [label="X[1] <= 44.0\nmse = 0.397\nsamples = 45\nvalue = 5.97"] ;
2 -> 3 ;
11 [label="X[1] <= 40.0\nmse = 0.361\nsamples = 37\nvalue = 5.842"] ;
3 -> 11 ;
15 [label="X[4] <= 44.5\nmse = 0.327\nsamples = 35\nvalue = 5.893"] ;
11 -> 15 ;
17 [label="mse = 0.311\nsamples = 24\nvalue = 5.713"] ;
15 -> 17 ;
18 [label="mse = 0.14\nsamples = 11\nvalue = 6.283"] ;
15 -> 18 ;
16 [label="mse = 0.12\nsamples = 2\nvalue = 4.952"] ;
11 -> 16 ;
12 [label="mse = 0.137\nsamples = 8\nvalue = 6.562"] ;
3 -> 12 ;
4 [label="X[0] <= 189.5\nmse = 0.225\nsamples = 39\nvalue = 6.705"] ;
2 -> 4 ;
13 [label="mse = 0.171\nsamples = 36\nvalue = 6.632"] ;
4 -> 13 ;
14 [label="mse = 0.028\nsamples = 3\nvalue = 7.585"] ;
4 -> 14 ;
}